digraph Tree {
node [shape=box, style="filled, rounded", color="black", fontname=helvetica] ;
edge [fontname=helvetica] ;
0 [label="petal length (cm) <= 2.45\ngini = 0.66\nsamples = 95\nvalue = [47, 59, 44]\nclass = versicolor", fillcolor="#e8fcf0"] ;
1 [label="gini = 0.0\nsamples = 29\nvalue = [47, 0, 0]\nclass = setosa", fillcolor="#e58139"] ;
0 -> 1 [labeldistance=2.5, labelangle=45, headlabel="True"] ;
2 [label="petal length (cm) <= 4.95\ngini = 0.49\nsamples = 66\nvalue = [0, 59, 44]\nclass = versicolor", fillcolor="#cdf8df"] ;
0 -> 2 [labeldistance=2.5, labelangle=-45, headlabel="False"] ;
3 [label="petal length (cm) <= 4.85\ngini = 0.06\nsamples = 36\nvalue = [0, 59, 2]\nclass = versicolor", fillcolor="#40e685"] ;
2 -> 3 ;
4 [label="gini = 0.0\nsamples = 32\nvalue = [0, 55, 0]\nclass = versicolor", fillcolor="#39e581"] ;
3 -> 4 ;
5 [label="petal width (cm) <= 1.65\ngini = 0.44\nsamples = 4\nvalue = [0, 4, 2]\nclass = versicolor", fillcolor="#9cf2c0"] ;
3 -> 5 ;
6 [label="gini = 0.0\nsamples = 2\nvalue = [0, 4, 0]\nclass = versicolor", fillcolor="#39e581"] ;
5 -> 6 ;
7 [label="gini = 0.0\nsamples = 2\nvalue = [0, 0, 2]\nclass = virginica", fillcolor="#8139e5"] ;
5 -> 7 ;
8 [label="gini = 0.0\nsamples = 30\nvalue = [0, 0, 42]\nclass = virginica", fillcolor="#8139e5"] ;
2 -> 8 ;
}